Language model created by QuickLM on Tue Mar 19 15:19:13 EDT 2013
Copyright (c) 1996-2010 Carnegie Mellon University and Alexander I. Rudnicky

The model is in standard ARPA format, designed by Doug Paul while he was at MITRE.

The code that was used to produce this language model is available in Open Source.
Please visit http://www.speech.cs.cmu.edu/tools/ for more information

The (fixed) discount mass is 0.5. The backoffs are computed using the ratio method.
This model based on a corpus of 12 sentences and 15 words

\data\
ngram 1=15
ngram 2=25
ngram 3=14

\1-grams:
-0.8016 </s> -0.3010
-0.8016 <s> -0.2264
-1.8808 AA -0.2264
-1.8808 AUTONOMOUS -0.2894
-1.8808 BACK -0.2264
-1.8808 BRAKE -0.2264
-1.8808 FASTER -0.2264
-1.8808 GO -0.2264
-1.8808 HALT -0.2264
-1.8808 LEFT -0.2264
-1.8808 MANUAL -0.2894
-1.5798 MODE -0.2264
-1.8808 RIGHT -0.2264
-1.8808 SLOWER -0.2264
-1.8808 STOP -0.2264

\2-grams:
-1.3802 <s> AA 0.0000
-1.3802 <s> AUTONOMOUS 0.0000
-1.3802 <s> BACK 0.0000
-1.3802 <s> BRAKE 0.0000
-1.3802 <s> FASTER 0.0000
-1.3802 <s> GO 0.0000
-1.3802 <s> HALT 0.0000
-1.3802 <s> LEFT 0.0000
-1.3802 <s> MANUAL 0.0000
-1.3802 <s> RIGHT 0.0000
-1.3802 <s> SLOWER 0.0000
-1.3802 <s> STOP 0.0000
-0.3010 AA </s> -0.3010
-0.3010 AUTONOMOUS MODE 0.0000
-0.3010 BACK </s> -0.3010
-0.3010 BRAKE </s> -0.3010
-0.3010 FASTER </s> -0.3010
-0.3010 GO </s> -0.3010
-0.3010 HALT </s> -0.3010
-0.3010 LEFT </s> -0.3010
-0.3010 MANUAL MODE 0.0000
-0.3010 MODE </s> -0.3010
-0.3010 RIGHT </s> -0.3010
-0.3010 SLOWER </s> -0.3010
-0.3010 STOP </s> -0.3010

\3-grams:
-0.3010 <s> AA </s>
-0.3010 <s> AUTONOMOUS MODE
-0.3010 <s> BACK </s>
-0.3010 <s> BRAKE </s>
-0.3010 <s> FASTER </s>
-0.3010 <s> GO </s>
-0.3010 <s> HALT </s>
-0.3010 <s> LEFT </s>
-0.3010 <s> MANUAL MODE
-0.3010 <s> RIGHT </s>
-0.3010 <s> SLOWER </s>
-0.3010 <s> STOP </s>
-0.3010 AUTONOMOUS MODE </s>
-0.3010 MANUAL MODE </s>

\end\