Language model created by QuickLM on Fri Apr 26 09:10:50 EDT 2013
Copyright (c) 1996-2010 Carnegie Mellon University and Alexander I. Rudnicky

The model is in standard ARPA format, designed by Doug Paul while he was at MITRE.

The code that was used to produce this language model is available in Open Source.
Please visit http://www.speech.cs.cmu.edu/tools/ for more information

The (fixed) discount mass is 0.5. The backoffs are computed using the ratio method.
This model based on a corpus of 26 sentences and 27 words

\data\
ngram 1=27
ngram 2=50
ngram 3=50

\1-grams:
-1.0000 </s> -0.3010
-1.0000 <s> -0.2515
-2.4150 ABORT -0.2553
-1.8129 AROUND -0.2553
-2.1139 AUTONOMOUS -0.2515
-2.1139 BACK -0.2553
-2.1139 BRAKE -0.2553
-2.4150 CANCEL -0.2553
-2.4150 DOWN -0.2553
-2.4150 FASTER -0.2553
-2.1139 FOLLOW -0.2977
-1.9379 GO -0.2440
-2.4150 HIM -0.2553
-2.1139 MANUAL -0.2515
-2.4150 ME -0.2553
-2.1139 MODE -0.2553
-2.4150 MOVE -0.2553
-1.0928 OK -0.2645
-2.4150 REVERSE -0.2553
-2.4150 ROTATE -0.2553
-2.4150 SHUT -0.2994
-2.4150 SLOW -0.2553
-2.4150 SLOWER -0.2553
-2.4150 SPIN -0.2943
-2.1139 STOP -0.2553
-2.1139 TURN -0.2943
-1.0928 WHEELCHAIR -0.2590

\2-grams:
-1.7160 <s> ABORT 0.0000
-1.7160 <s> BRAKE 0.0000
-1.7160 <s> CANCEL 0.0000
-0.3938 <s> OK 0.0000
-1.7160 <s> SHUT 0.0000
-1.7160 <s> STOP 0.0000
-0.3010 ABORT </s> -0.3010
-0.3010 AROUND </s> -0.3010
-0.6021 AUTONOMOUS </s> -0.3010
-0.6021 AUTONOMOUS MODE 0.0000
-0.3010 BACK </s> -0.3010
-0.3010 BRAKE </s> -0.3010
-0.3010 CANCEL </s> -0.3010
-0.3010 DOWN </s> -0.3010
-0.3010 FASTER </s> -0.3010
-0.6021 FOLLOW HIM 0.0000
-0.6021 FOLLOW ME 0.0000
-0.7782 GO </s> -0.3010
-0.7782 GO AROUND 0.0000
-0.7782 GO BACK 0.0000
-0.3010 HIM </s> -0.3010
-0.6021 MANUAL </s> -0.3010
-0.6021 MANUAL MODE 0.0000
-0.3010 ME </s> -0.3010
-0.3010 MODE </s> -0.3010
-0.3010 MOVE </s> -0.3010
-0.3010 OK WHEELCHAIR 0.0000
-0.3010 REVERSE </s> -0.3010
-0.3010 ROTATE </s> -0.3010
-0.3010 SHUT DOWN 0.0000
-0.3010 SLOW </s> -0.3010
-0.3010 SLOWER </s> -0.3010
-0.3010 SPIN AROUND 0.0000
-0.3010 STOP </s> -0.3010
-0.3010 TURN AROUND 0.0000
-1.3222 WHEELCHAIR AUTONOMOUS 0.0000
-1.6232 WHEELCHAIR BACK 0.0000
-1.6232 WHEELCHAIR BRAKE 0.0000
-1.6232 WHEELCHAIR FASTER 0.0000
-1.3222 WHEELCHAIR FOLLOW 0.0000
-1.1461 WHEELCHAIR GO 0.0000
-1.3222 WHEELCHAIR MANUAL 0.0000
-1.6232 WHEELCHAIR MOVE 0.0000
-1.6232 WHEELCHAIR REVERSE 0.0000
-1.6232 WHEELCHAIR ROTATE 0.0000
-1.6232 WHEELCHAIR SLOW 0.0000
-1.6232 WHEELCHAIR SLOWER 0.0000
-1.6232 WHEELCHAIR SPIN 0.0000
-1.6232 WHEELCHAIR STOP 0.0000
-1.3222 WHEELCHAIR TURN 0.0000

\3-grams:
-0.3010 <s> ABORT </s>
-0.3010 <s> BRAKE </s>
-0.3010 <s> CANCEL </s>
-0.3010 <s> OK WHEELCHAIR
-0.3010 <s> SHUT DOWN
-0.3010 <s> STOP </s>
-0.3010 AUTONOMOUS MODE </s>
-0.3010 FOLLOW HIM </s>
-0.3010 FOLLOW ME </s>
-0.3010 GO AROUND </s>
-0.3010 GO BACK </s>
-0.3010 MANUAL MODE </s>
-1.3222 OK WHEELCHAIR AUTONOMOUS
-1.6232 OK WHEELCHAIR BACK
-1.6232 OK WHEELCHAIR BRAKE
-1.6232 OK WHEELCHAIR FASTER
-1.3222 OK WHEELCHAIR FOLLOW
-1.1461 OK WHEELCHAIR GO
-1.3222 OK WHEELCHAIR MANUAL
-1.6232 OK WHEELCHAIR MOVE
-1.6232 OK WHEELCHAIR REVERSE
-1.6232 OK WHEELCHAIR ROTATE
-1.6232 OK WHEELCHAIR SLOW
-1.6232 OK WHEELCHAIR SLOWER
-1.6232 OK WHEELCHAIR SPIN
-1.6232 OK WHEELCHAIR STOP
-1.3222 OK WHEELCHAIR TURN
-0.3010 SHUT DOWN </s>
-0.3010 SPIN AROUND </s>
-0.3010 TURN AROUND </s>
-0.6021 WHEELCHAIR AUTONOMOUS </s>
-0.6021 WHEELCHAIR AUTONOMOUS MODE
-0.3010 WHEELCHAIR BACK </s>
-0.3010 WHEELCHAIR BRAKE </s>
-0.3010 WHEELCHAIR FASTER </s>
-0.6021 WHEELCHAIR FOLLOW HIM
-0.6021 WHEELCHAIR FOLLOW ME
-0.7782 WHEELCHAIR GO </s>
-0.7782 WHEELCHAIR GO AROUND
-0.7782 WHEELCHAIR GO BACK
-0.6021 WHEELCHAIR MANUAL </s>
-0.6021 WHEELCHAIR MANUAL MODE
-0.3010 WHEELCHAIR MOVE </s>
-0.3010 WHEELCHAIR REVERSE </s>
-0.3010 WHEELCHAIR ROTATE </s>
-0.3010 WHEELCHAIR SLOW </s>
-0.3010 WHEELCHAIR SLOWER </s>
-0.3010 WHEELCHAIR SPIN AROUND
-0.3010 WHEELCHAIR STOP </s>
-0.3010 WHEELCHAIR TURN AROUND

\end\